nep4 2 C Si 
cutoff 8 4 392 49
n_max 4 4
basis_size 8 8
l_max 4 2 0
ANN 30 0
 -1.3097080e+00
  1.8271977e+00
  5.1156384e-01
 -1.1827438e-01
 -9.1005713e-01
  2.0110457e+00
 -2.2742112e-01
 -1.4902621e-03
 -2.7539507e-02
 -7.7283537e-01
 -5.4397190e-01
  1.8120036e-01
 -1.0676627e+00
 -2.6243609e-01
 -7.5724727e-01
  6.4722997e-01
 -2.1039999e+00
 -5.0485536e-02
 -9.2107856e-01
  4.6180725e-01
 -5.1327493e-02
 -9.0521717e-01
  3.7663770e-01
  4.1361579e-01
  1.7937896e+00
 -3.8615340e-01
 -1.1610311e+00
 -3.7542805e-02
 -6.4833708e-02
 -3.8393869e-03
 -5.1776844e-01
  3.1611741e+00
 -1.9741296e+00
 -2.7846683e-02
 -1.9350681e+00
  4.7496626e-01
 -1.2243978e+00
 -1.0667133e+00
  2.6640663e-01
  8.1381929e-01
  3.9286345e-01
 -2.1577318e+00
  1.0313331e+00
 -1.5648315e+00
  1.2288632e+00
 -1.3382572e-01
 -1.4367638e+00
  5.0554508e-01
 -1.5164529e-02
  7.9444224e-01
  9.3411219e-01
 -1.3867843e+00
  6.3643903e-01
  3.5758767e-01
 -7.8529805e-01
  9.5921880e-01
 -4.1555616e-01
 -7.2752303e-01
 -8.5560983e-01
  6.4537533e-02
  1.4498771e+00
  1.3214817e+00
 -1.6672108e+00
 -1.6986289e+00
 -2.1254411e-03
 -3.5377148e-01
 -1.5381380e+00
 -1.5517347e-01
 -4.8968247e-03
 -2.3181072e-02
  4.5033754e-03
  3.1107566e+00
 -1.3441709e+00
 -1.4289339e-02
 -1.1005485e+00
  6.4308000e-01
  1.4053750e+00
  1.0165429e+00
 -9.8629624e-01
  1.0650758e-02
  4.0002707e-02
  2.1545718e+00
 -1.2326733e+00
 -9.8695332e-01
  3.5765460e-01
 -2.8979009e-01
  3.2995760e-01
 -3.5636711e-03
 -2.7961776e-02
 -1.7332892e-01
  1.1464750e+00
  2.2057939e+00
 -3.9700228e-01
  8.6430997e-01
 -1.3434786e+00
  3.7687507e-01
  9.2080259e-01
  6.9587368e-01
 -3.0782893e-01
 -1.4868575e+00
  1.3178052e+00
  2.4533758e-01
  1.7554497e+00
  3.8404933e-01
 -1.3918109e+00
  5.1900762e-01
  2.7232237e+00
  1.0188345e+00
 -2.1888148e-02
 -1.3786330e+00
  3.4067994e-01
 -5.2070397e-01
  9.2223293e-01
 -6.5486789e-01
 -7.2446752e-01
 -1.4332012e-02
  2.6923296e-01
 -1.7820418e-01
 -5.0891411e-02
  1.9469976e+00
 -1.7648262e-01
  3.0351108e-01
  1.3158008e-01
  9.5828436e-03
  7.1029681e-01
 -4.6249160e-01
 -2.9414365e-02
 -6.4909518e-01
  1.6330150e-03
  4.3127005e-04
  1.5214939e-03
  5.4198575e-01
  9.2869914e-01
 -1.2302302e-01
 -2.1560717e-02
 -2.0026650e+00
  3.3385792e-01
  7.3802933e-02
  1.9921791e-02
  9.8092055e-01
  2.7148050e-01
  2.1134648e+00
  1.5695903e-02
  4.4212095e-03
  3.4713742e-01
  1.6731593e-01
  1.6094933e-03
  3.9629298e-03
 -4.3968044e-02
 -1.4670083e-02
  2.0984499e+00
  4.0586878e-02
  7.3802032e-02
 -5.8349633e-01
 -2.9219273e-01
 -3.1844147e-02
  4.2352781e-02
 -1.3931289e-01
 -3.1215811e-01
  1.6831142e-01
  1.2478896e+00
 -1.3208411e+00
  1.0459785e+00
 -2.4361627e-01
  3.9155751e-01
 -4.9146172e-01
 -1.2255485e+00
  7.2693877e-02
  1.1636077e-01
  5.5375677e-01
  1.7019039e-01
  6.2371655e-03
  9.0540588e-01
  2.3617283e-02
  1.9119468e-01
  9.8717429e-02
  6.4401729e-03
  1.4534245e-01
  1.3694152e-01
  4.9557630e-03
 -1.0146328e+00
  2.4041116e-02
  5.4492211e-01
 -5.7545990e-02
 -7.2641470e-02
 -6.5353788e-03
 -3.0725067e-02
 -1.8852741e-02
 -3.1794541e-02
  2.6278445e-03
 -6.5568485e-03
  7.1841814e-02
 -8.4171249e-03
  1.9062908e-03
 -2.6822293e-02
  1.2242319e-02
  7.4381393e-01
 -1.5716702e-01
  1.0175706e-01
  1.9904369e-02
  2.2410938e-01
 -2.8697219e-01
 -3.0163523e-02
  7.0789005e-03
  1.2543687e+00
 -1.9988538e-01
  2.9608367e-02
 -1.8244787e-01
  1.9523932e-02
 -3.4886692e-02
  3.1769341e-01
  1.1946051e+00
  9.0606706e-03
  1.6674409e+00
  1.0352976e-01
  1.1662914e+00
 -3.1248912e-01
  2.9796190e+00
 -7.2155797e-01
  2.8606210e+00
 -2.6043947e+00
  8.5621655e-01
  8.2807249e-01
 -1.2255445e+00
 -8.6339855e-01
 -3.1770308e+00
  1.0009378e+00
  5.6263965e-01
 -1.7966090e+00
 -1.2977631e+00
 -6.3433492e-01
  2.4930956e-02
 -4.1858223e-01
 -1.1630830e+00
  4.2061752e-01
 -8.0974710e-01
  1.7626980e-01
 -9.6771562e-01
  1.7168339e-01
 -4.7593495e-01
 -1.2735947e+00
 -4.8631039e-01
 -1.2893229e-02
 -7.3281364e-03
  2.8483879e-02
 -1.3751763e+00
 -2.2707527e+00
 -2.2847882e-01
 -7.2532487e-01
 -6.0070676e-01
  1.0092752e+00
  7.6082414e-01
  1.9651649e+00
 -4.1706696e-01
 -1.1308836e+00
  3.1563280e+00
  1.0909448e+00
  2.1320648e+00
 -4.1378441e-01
 -1.0557573e+00
  1.5190328e+00
 -2.3091233e+00
  1.8918639e+00
 -3.0384970e-01
 -1.6958509e-01
 -4.2006198e-01
  2.0677337e-01
 -1.5159459e+00
  8.9003012e-02
 -9.0103336e-03
  4.6126270e-01
  2.0497696e+00
  1.0275927e+00
  1.0766363e+00
  8.8089950e-02
 -2.1681678e+00
 -5.7521385e-01
 -1.5958183e+00
  2.0919874e-02
  1.3906597e-01
  2.1014879e+00
 -4.1711944e-01
  3.2755644e-03
  4.4811425e-01
  3.2002750e-01
  7.4338183e-02
  2.2784826e-01
  7.3811251e-01
 -4.5692492e-02
  2.3298898e-01
  9.0372181e-03
 -2.1077874e-01
  2.0178977e-02
 -4.3727171e-01
  4.9411291e-01
 -4.1280714e-01
 -1.3329592e+00
 -1.0518365e-01
 -3.7491150e-02
  4.9829680e-01
  8.2312578e-01
  1.6589652e+00
 -6.8907315e-01
  3.0296925e-03
 -4.7567225e-01
  4.1631651e-03
  8.9368492e-02
 -3.8332388e-01
  5.2495849e-01
  2.4481839e-01
 -8.9497107e-01
 -8.2276511e-01
  2.2786863e-02
  2.9443449e-01
 -2.1532276e+00
  7.1284837e-01
 -2.3601612e-02
  3.5359293e-01
  3.2148075e-01
 -3.0432878e-02
  1.5024575e+00
  7.4481785e-01
  8.2963407e-01
  1.6764367e-01
  2.9579663e-01
  1.6457006e-01
  2.4450636e-02
 -1.0717679e-01
 -1.8298315e-02
  2.8124729e-01
  6.0197085e-01
  6.7370094e-04
  6.4920552e-02
 -8.0135807e-02
  6.6259161e-02
  3.6299698e-02
 -5.4445527e-02
  2.4803010e-01
 -8.7786742e-02
  8.6513320e-03
  1.4644974e-02
 -6.4743944e-02
 -5.9589069e-02
 -1.2365282e-02
  1.2231092e-01
  4.7758561e-01
 -1.4912800e-01
  4.2439114e-02
  3.4560606e-02
  1.0401292e-02
 -8.5886531e-03
  4.3030731e-02
 -5.2148175e-01
  2.3033831e-02
  1.2538086e-01
 -1.9374914e-01
 -4.6007521e-03
 -2.6644543e-02
 -1.5200811e-02
  1.1968775e-02
 -2.3771694e+00
 -2.0938911e+00
 -3.3347723e-01
  1.9900860e-01
  1.3163766e-01
  2.3415072e+00
 -1.9470714e+00
  1.1999788e+00
  3.3322006e-02
  2.6147285e-01
  1.4212806e+00
  3.4182319e-01
  1.4090710e+00
  4.4835567e-02
 -1.1603934e+00
  4.8058531e-01
  7.4194151e-01
 -8.8613850e-01
  4.0485552e-01
  2.6834598e-01
  6.8715852e-01
  9.7800368e-01
  1.4227813e+00
 -1.5075746e-01
 -3.7937802e-01
 -2.4191588e-02
  4.8054811e-01
 -3.2977477e-01
 -5.9892675e-03
 -7.2586574e-02
  1.4041616e+00
  7.0776212e-01
  3.2922417e-01
 -2.2812796e-01
 -3.3636698e-01
  1.1388144e-01
  1.7078754e-03
  3.8324839e-01
  2.2089784e-01
  1.1263063e-01
  3.7434933e-01
 -8.5783482e-02
 -1.0156536e+00
 -7.1399555e-02
 -1.0363451e+00
  2.9236934e-01
  6.0782975e-01
  2.3775294e-03
  2.8056291e-01
  1.5722958e+00
  1.4039518e+00
  7.5595355e-01
 -3.7515470e-01
  6.5682359e-02
  9.2853677e-01
  1.4816503e-02
  2.5741216e-02
  2.2418369e-02
  1.0282882e-02
  8.3213858e-02
 -7.1595836e-01
  9.2681873e-01
 -4.2769146e-01
  3.3364561e-01
  6.8877393e-01
 -1.4388881e+00
  6.3979435e-01
  8.4019679e-01
 -4.7222674e-03
 -3.0321736e+00
 -7.3705715e-01
 -7.6112106e-02
  1.5129679e+00
  4.1602862e-01
 -1.1674311e+00
  1.3980227e+00
 -3.0145431e-01
  2.5918770e-01
  1.5871691e+00
 -1.7357211e+00
  9.4640046e-01
  1.8368115e-01
  1.1110909e+00
  1.2934806e+00
 -1.0461556e+00
 -2.7215943e-01
 -8.4402531e-01
 -7.7592975e-01
  1.2741931e-02
 -4.3716252e-01
 -4.5422885e-01
 -9.1123722e-02
  2.5203210e-01
  6.0855335e-01
  1.0461620e-01
 -4.9728331e-01
  3.0506251e-02
  1.7671758e-02
 -9.4433986e-03
 -1.6732629e-02
 -8.6704046e-01
 -1.0332465e+00
  8.2540274e-01
 -9.7122379e-03
 -1.1662327e+00
 -1.1347952e+00
 -2.2720219e-01
  1.9177111e+00
  3.9976712e-02
  6.0358995e-01
  6.1205369e-01
 -9.6916676e-02
  3.5717392e-01
  1.8909326e-03
  7.0046924e-02
  1.6602424e+00
  1.6847269e-01
  1.2367731e+00
  1.8364279e-02
  5.2182078e-01
  6.2543027e-02
  4.5546657e-01
 -2.2147322e+00
 -1.0319303e+00
  3.0317292e-01
 -3.9238790e-03
 -1.4863825e+00
  5.4878306e-02
 -1.0643128e-01
 -4.6076256e-01
 -3.6356726e-01
 -5.5632975e-02
 -8.7679642e-01
  5.2722853e-01
 -5.6327546e-01
  2.5960586e+00
 -5.5088294e-01
  2.0734145e-01
  5.3584073e-03
  1.2665217e+00
  3.5718137e-01
  9.1881090e-01
 -1.1351707e+00
  3.4451187e-01
 -9.5764399e-01
 -2.2582661e-01
 -2.3078880e-01
  8.0983508e-01
 -8.5552283e-02
  1.9400282e-01
 -7.8695446e-01
  1.9500953e-01
 -2.6549666e+00
 -1.0985132e+00
  2.9386163e-01
  3.1809323e+00
  1.2479803e-01
 -2.1291676e-01
 -5.2124545e-02
  1.4576374e+00
  7.2176892e-01
 -6.0470414e-01
  5.6298584e-01
  2.1730115e-01
  1.7073268e-01
  5.1994801e-01
  3.6442196e-01
 -8.0017626e-01
  6.0733050e-01
 -4.0446779e-01
 -4.7819916e-02
 -1.4133799e-01
 -1.7047334e+00
  8.9951986e-01
  3.4947672e-01
  9.3109745e-01
 -2.2066845e-01
 -2.6173431e-01
 -1.4625940e-02
 -1.0384057e+00
 -8.5225517e-01
  1.4546324e-02
  3.9247844e-02
 -1.7155880e+00
 -1.2254444e+00
  1.6450500e-01
 -1.5678909e+00
  2.4008451e+00
 -2.1943727e-01
 -1.3840479e+00
 -2.3068830e-01
  7.8154821e-03
 -4.0535364e-01
 -3.5464755e-01
 -1.5742043e-01
 -2.0920048e+00
  2.5632226e+00
 -2.5537401e-01
 -1.7478328e+00
  2.7452886e+00
  3.6319152e-01
 -6.8784231e-01
  3.1001124e-01
  8.6855501e-02
  2.3959098e+00
 -1.8518987e+00
  3.5925474e-02
 -2.5329261e+00
 -9.2159986e-01
 -2.7154882e+00
 -2.2350457e+00
 -5.2615581e+00
 -8.6654896e-01
  9.9069482e-01
 -1.4340125e-01
 -2.7251954e+00
  4.9632335e-01
 -8.9835352e-01
 -1.0412035e+00
  1.5685133e+00
 -1.5846941e+00
 -6.4199364e-01
  3.4378630e-01
 -1.2846158e+00
 -8.3641994e-01
  9.5258540e-01
 -1.1042821e+00
  3.3965065e+00
 -5.0772208e-01
 -1.3114671e+00
 -1.1360205e+00
 -6.5277302e-01
  8.3906716e-01
  2.2591041e-01
  6.4270073e-01
  3.3222663e-01
 -2.6629579e+00
 -4.1621661e-01
  1.7799299e-02
 -2.6177604e+00
  9.1847044e-01
  9.2186964e-01
  1.6077361e+00
 -2.9019025e-01
 -1.0984233e-01
 -4.8197277e-02
  7.8050989e-01
 -5.5308305e-03
  7.7727211e-01
  1.0506210e-02
  6.5686470e-01
 -2.0354376e+00
 -5.0020927e-01
  1.7936486e+00
  3.5335189e-01
 -3.2792130e-01
 -1.4826701e+00
  4.9000312e-02
 -1.3754454e-02
  6.9471014e-01
 -3.1376908e+00
 -1.0000133e-01
 -1.0248884e-01
  4.0102309e-01
  1.1666649e-02
  1.0549929e+00
  9.5302349e-01
  2.3045097e-01
 -6.1887722e-02
  6.8934882e-01
 -1.2083083e+00
 -1.0766847e-01
 -2.6269791e-01
  2.2646470e-01
  1.4718755e-01
  6.7541219e-02
  2.6167884e-01
  4.0374568e-04
 -1.6278912e-01
  1.3292512e-02
  9.5702382e-03
  3.8381282e-02
 -2.8918394e-01
  3.3814300e-02
  7.2711289e-02
 -7.8378028e-01
 -6.7704402e-02
 -8.7688811e-02
 -9.3759380e-02
 -5.0872348e-02
 -7.9654235e-01
 -2.2085674e-01
  9.9195272e-01
 -9.2602991e-02
 -6.6388480e-02
 -3.0017769e-01
 -1.8313338e-01
 -6.8278948e-04
 -2.8400593e-02
  1.2327208e-01
  2.2164798e+00
  6.4695638e-01
 -1.2366070e+00
 -3.4199512e-01
 -1.2550420e+00
  1.0132204e+00
 -1.1949651e-01
 -2.9468244e-01
  3.3267125e-01
  4.1058884e-04
 -1.4350888e+00
 -1.2988235e+00
 -3.4469448e-02
  6.5220392e-01
  3.3487675e-01
  1.2110873e+00
  1.9219978e+00
 -4.8244086e-01
  3.6475226e-01
 -8.7785733e-01
  2.8001103e-01
 -5.3202897e-01
  2.2519462e-01
  2.3049025e-01
 -4.0492266e-01
 -1.7314001e+00
  1.5369509e+00
  1.5246460e-01
 -1.5544993e-01
 -1.3335887e+00
 -1.5406004e+00
  2.6501939e-01
  1.3972285e+00
  2.5925438e+00
  8.9843893e-01
 -9.8277128e-01
  2.0522338e-01
  2.6310880e+00
 -5.9323341e-01
 -7.1626049e-01
  7.1805960e-01
 -8.9792520e-01
  3.4963880e+00
 -7.3310763e-02
 -2.0775650e+00
  2.4208431e+00
  1.9377587e+00
  2.3666835e+00
 -3.4719419e-01
 -1.7477139e+00
  1.0843159e+00
  3.1470494e+00
  1.4122641e+00
 -1.0834197e-02
 -1.2717179e+00
  1.8165356e+00
  9.5187612e-02
 -3.6872575e-01
  3.0625517e-02
  1.9839529e+00
 -5.0066262e-01
  4.6301338e-01
  4.8614508e-01
  1.0104256e+00
  5.1647246e-01
 -7.0680416e-01
 -4.7584331e-01
  3.1341405e+00
 -1.6951963e-02
  3.1330996e+00
 -1.2406424e+00
  1.6003088e+00
  1.5777096e+00
  5.3711706e-01
  1.0019552e+00
  6.7644769e-01
  7.0444012e-01
 -4.3725687e-01
 -1.4318565e+00
 -1.0977611e-01
 -4.4869503e-01
  1.8839233e-01
  3.0127612e-01
  9.7151595e-01
  1.2636776e-01
  1.5894362e+00
 -2.9068738e-01
 -5.3362501e-01
  7.0923793e-01
 -2.4711332e+00
  3.5278454e-01
 -1.7787479e+00
  2.1751196e+00
  1.3974389e+00
 -3.5667500e-01
  3.8831100e-01
 -7.1351814e-01
  2.8532488e+00
  1.6964893e+00
 -2.4644346e+00
 -5.3029686e-01
 -1.1197040e+00
 -1.0530183e-01
  1.7907723e+00
 -1.5830480e+00
 -2.2042556e-01
 -7.8336424e-01
  1.4559057e+00
  1.6293960e+00
 -6.9963622e-01
  2.3071649e+00
 -6.0820454e-01
 -3.0598214e-01
 -9.2655635e-01
  1.4956655e-01
  7.5445199e-01
  8.2387376e-01
 -1.0158743e-01
 -9.2891134e-02
 -4.4514164e-01
  3.1315238e-04
  1.0084976e+00
  2.6747837e+00
 -8.3954561e-01
 -2.2045851e-02
  2.2709160e+00
 -4.6249505e-02
  4.6334207e-02
 -5.0593781e-01
 -1.8188573e-01
  1.8207232e+00
 -1.0262473e+00
  9.8692107e-01
  7.2300625e-01
 -7.0402116e-02
 -6.3516551e-01
 -1.8086032e+00
 -1.0687985e+00
 -5.3831220e-02
  1.2222763e+00
 -7.0677060e-01
 -4.9340314e-01
 -1.5021217e-01
 -3.6356413e-01
 -8.8129371e-02
 -9.6122354e-02
 -3.3064492e-02
 -8.3730900e-01
 -1.9178648e-02
  4.8790783e-01
 -1.2994599e+00
 -2.9520142e-01
  1.1071802e-01
  8.9002764e-01
  1.1806464e+00
  4.1502267e-01
  2.3317209e-01
  5.3002201e-02
  5.3735799e-01
 -9.8565125e-01
  6.3249123e-01
  1.1400748e+00
  7.2545767e-01
  1.0803770e+00
  9.8668075e-01
  1.7630309e-02
  2.8271031e-01
 -9.0650534e-03
 -2.7411050e-01
 -1.3156497e+00
 -1.0382390e+00
 -1.7758065e+00
  1.2710227e+00
  3.4630210e-03
  1.0598955e+00
  1.4264985e+00
  1.5453646e+00
  1.9581147e+00
 -1.7223535e-03
 -9.8719269e-01
 -5.6452560e-01
 -7.8570181e-01
  9.1472769e-01
 -7.1420074e-01
  1.1455999e-01
  2.5103050e-01
 -1.0451369e-02
 -9.0377383e-02
 -1.2322936e-01
 -6.8379408e-01
  6.6973108e-01
 -1.0332275e-01
 -1.0074446e+00
  1.3184023e+00
  2.9209385e-02
  6.9719684e-01
  8.1152089e-02
  3.9608669e-01
 -4.1733932e-02
  9.6395534e-01
  6.7840242e-01
  9.9567723e-01
 -3.7553486e-01
  1.8195341e+00
  1.5926859e+00
  4.7594967e-01
 -4.0880713e-01
  1.0551063e-01
 -1.2186020e-02
  4.7240078e-02
 -7.5666708e-01
  9.4998455e-01
 -3.9879084e-02
 -2.1220450e-01
 -2.4237525e-02
 -8.1447653e-02
  2.1764247e-02
  3.4980676e-01
 -1.0603187e-02
 -6.0964514e-02
  1.3693984e+00
 -4.2992273e-01
  1.2250657e-02
  7.7399802e-03
  7.7760668e-04
 -3.0700976e-01
  9.1912824e-01
  7.3970318e-01
  5.9928996e-03
 -7.4471503e-01
 -4.5325935e-02
  5.3251964e-01
 -7.1378517e-01
  4.9011219e-02
 -8.2957864e-02
 -7.1888745e-01
  2.2354964e-02
 -1.3532948e-01
  7.2318390e-02
 -1.3063639e-02
  7.5753480e-01
  1.9321468e-01
 -1.1009921e+00
 -8.4173948e-02
  9.0695393e-01
 -1.2592512e-01
  8.8518634e-02
  4.3614274e-01
  4.5335475e-01
  1.8276132e+00
 -1.3928504e+00
  1.1563126e+00
  1.1309866e+00
 -2.7079839e-01
  3.3481762e-01
  1.3639604e-01
  1.1870302e+00
 -1.2696008e-01
  1.3381908e+00
 -2.0956089e+00
  9.0328890e-01
  1.3015271e+00
 -9.5977902e-02
  2.9685912e-01
 -3.6825737e-01
  1.0213879e+00
 -6.6429496e-01
 -1.0286494e-01
  2.4577200e+00
 -1.2453241e-01
 -1.0358303e+00
 -1.0422693e+00
  1.8635291e+00
 -1.6664444e+00
  2.4430561e-01
  3.3905065e-01
 -2.5281218e-01
 -8.8097990e-01
 -8.2722670e-01
  6.0463798e-01
  1.2748585e+00
 -5.8323050e-01
  8.4484625e-01
  4.2348149e-01
  1.5873373e+00
  4.6229848e-01
 -5.7087594e-01
  8.8832849e-01
 -8.5690844e-01
 -1.1741890e+00
  6.9369149e-01
 -1.3208131e+00
  2.4472427e+00
 -2.1061783e+00
  2.4703228e+00
  1.4134517e+00
 -1.3747917e+00
  1.4990634e+00
 -8.5552037e-01
 -4.6383333e-01
  2.1932449e-02
 -3.8374060e-01
 -1.1734224e-01
 -3.0041263e-02
 -5.4550827e-01
  1.1143319e-02
  1.9739935e-01
  1.5501139e-01
 -1.0039383e-02
 -2.3480698e-03
  2.6643192e-02
 -5.3973112e-02
  1.9003648e-01
  2.3110505e-02
 -5.2144095e-02
  4.1064579e-02
  1.4824905e-02
 -1.4448528e-01
  1.9773221e-01
 -4.0927911e+00
 -4.7598997e-01
 -2.4117369e-02
  1.8140090e-01
 -1.8273044e-01
 -3.1170484e-01
 -2.0309376e-02
  3.8623083e-02
 -2.0133117e-01
  7.3030762e-02
 -2.1500225e-01
 -2.6254615e-01
  4.7072497e-01
  1.2484934e-02
  9.1779387e-01
 -1.1031886e+00
 -6.0992151e-02
 -3.1864115e-03
 -2.7777141e-02
  3.0133906e-01
  1.5797040e-01
  8.9356554e-01
 -4.7136864e-01
  2.7476212e-01
  9.1530395e-01
  1.7761551e-02
  2.7425200e-01
  1.2171103e-02
  4.3507643e-02
 -1.2843424e-01
 -2.9672500e-01
 -1.5187480e-01
  5.7576992e-02
 -2.8510210e-01
 -1.0374711e-01
 -3.0116307e-02
 -1.3876432e+00
 -2.9834341e-02
  2.6030505e-02
 -5.5350136e-02
 -4.1813202e-02
 -1.7480850e-01
  1.7814134e-01
  3.0274904e-01
  1.2234739e+00
  5.5925071e-01
 -6.7589981e-03
 -4.9786970e-02
  1.6312250e+00
 -1.2048023e-01
  4.3785575e-01
  3.8863204e-02
  4.3059085e-02
 -3.7316880e-01
  1.6058059e-01
  8.3203360e-02
  2.4637265e-02
  7.6546581e-03
  1.0383256e-01
 -9.3607044e-01
  1.0653874e-01
 -5.8230615e-01
  1.6091586e-03
  3.3628538e-02
 -6.4981073e-01
  1.6228993e-01
 -5.2243143e-02
 -1.3186046e-02
  5.9126817e-02
  2.7031299e-01
  6.3736029e-02
 -5.6659395e-01
  1.8216287e+00
  9.7241670e-01
 -8.7552238e-01
 -8.4697646e-01
 -2.8675876e+00
  4.1941100e-01
 -7.9451329e-01
  3.6779088e-01
  7.3259389e-01
 -1.4677750e+00
  1.3492485e+00
 -6.5126693e-01
  5.7077074e-01
  8.3900034e-01
  9.7859196e-02
 -1.1635092e+00
 -3.2130082e+00
  2.0859404e+00
 -8.9321172e-01
  1.2750686e+00
  1.6285788e+00
 -2.1820858e-02
 -5.4677647e-01
 -2.8169002e-02
  4.8164257e-01
  4.2400971e-02
  1.3995421e-01
 -3.7581378e-01
 -4.3678027e-01
 -2.9696631e-01
 -2.2781732e+00
 -2.9616215e+00
  6.5494001e-01
 -1.8569177e+00
  1.1439931e-01
  1.7868190e+00
  4.3394303e-01
  3.3991629e-01
 -1.6820783e-02
 -1.3758190e+00
  7.9224981e-02
  1.5052365e-01
  7.1409249e-01
  3.1651038e-01
 -5.2546126e-01
  3.0841255e-01
 -1.9320272e-01
 -1.3369395e+00
  1.7755376e-01
  7.2302705e-01
 -4.7694200e-01
 -1.5178499e-01
 -8.1346035e-01
  1.6391217e+00
 -2.6960895e-04
  4.0603481e-02
 -5.4882499e-03
  2.9460268e-02
 -4.8745951e-01
  7.9251472e-03
  4.7597606e-02
 -4.5095649e-02
 -7.3420376e-01
 -9.7191051e-02
 -1.8881135e-01
 -1.5812693e-02
  1.6613997e-03
 -9.3273647e-02
  3.0965485e-02
 -4.8787743e-01
 -3.7338179e-02
 -4.4598466e-01
 -2.8670400e-01
  1.7101394e-01
 -4.9452925e-01
  1.1742046e-01
  1.8738553e-01
 -2.6937222e-02
  5.3948522e-02
  1.6349569e-01
 -4.3134160e-02
  2.6189020e-01
  1.1775482e+00
  7.1884908e-02
 -2.0564538e-01
 -1.7796045e-02
  1.9821879e-03
  5.6610189e-02
 -5.8825091e-02
  1.8307477e-01
 -6.0658325e-02
 -8.9403003e-01
 -1.1715242e-01
 -2.5388840e-01
  2.6313156e-01
 -1.6627066e-01
 -4.8012290e-02
  7.3229903e-01
 -3.7659267e-01
  1.1379516e+00
 -1.7647555e-02
 -1.1311345e-01
  3.6988237e+00
 -7.1201421e-02
  8.6111146e-01
  1.7957790e-02
  2.6693785e-01
  1.6034058e-01
  2.1565203e-01
 -2.2334449e-02
  2.4801593e+00
  2.1040938e+00
 -2.0574448e-01
 -1.1433387e-01
  3.1311493e-02
 -1.3186464e-01
 -1.0367616e-01
 -1.0105247e-01
  1.2256503e-01
 -7.0096597e-02
 -1.0867114e-01
  7.0612150e-01
  1.0343346e-01
 -1.7876805e+00
 -1.6286939e-01
  6.6520697e-03
  5.5059597e-02
  3.2713318e-01
  6.8058640e-02
  1.5017359e-01
  2.2267132e+00
 -8.6041223e-03
  1.3023455e-01
 -9.2845030e-02
 -1.6845571e+00
  1.3967304e-01
 -1.3189521e+00
 -1.7311809e+00
 -1.1873911e-01
  6.3767695e-01
 -4.1513729e-01
  6.8860447e-01
 -5.2422708e-01
 -2.6518269e-02
  1.1316266e-01
 -7.6787233e-02
 -1.3964244e-02
 -1.3922538e-02
  1.3132849e+00
 -3.6131811e-01
  1.0722508e-01
 -6.8991828e-01
 -1.1457574e+00
 -2.9673865e-01
  5.0080413e-01
  1.7697304e+00
 -4.5165771e-01
  1.6304218e+00
  1.6012690e+00
 -5.8321007e-02
 -1.0610113e-01
  1.2706037e-01
  8.4330016e-01
  1.3087931e+00
 -1.0992829e+00
 -1.3862348e+00
 -3.2997748e-01
 -1.3033390e+00
 -6.1339520e-02
 -2.7246017e+00
 -1.2703971e+00
  7.6556003e-01
  2.6112630e+00
 -4.7201240e-01
 -1.8662289e-02
 -5.3799670e-02
 -2.5230578e-01
  2.0235530e-01
 -3.4603873e-01
  1.3423477e-01
 -2.2477176e+00
  4.5145363e-02
 -4.6622396e-01
 -2.2918813e+00
 -4.2791758e-03
 -1.6437559e+00
 -1.0211688e+00
 -3.2697773e-01
 -1.4756329e+00
  9.1509843e-01
 -1.5048258e-01
  1.4078813e+00
 -1.4680582e-01
  2.1269180e-01
 -3.5950178e-01
  1.1915489e-01
 -9.5288140e-01
  2.1044925e-01
 -3.4031904e-01
 -3.3050134e+00
  1.2580707e+00
 -1.5246603e+00
  8.2505941e-01
  4.3496820e-01
  8.7687351e-02
 -9.1790691e-02
 -4.7494657e-02
  5.6007360e-03
  2.9673955e-01
 -8.9360720e-01
  2.6716356e+00
 -1.8072698e+00
  6.1267656e-01
  5.5421716e-01
 -1.0806233e+00
 -3.1070893e+00
 -5.5334204e-01
 -1.6664001e-01
  6.4889747e-01
 -1.2338507e-02
 -7.1517658e-01
 -4.2474103e-01
  8.2648236e-01
  1.6936017e+00
  5.7305481e-02
 -1.5539243e+00
  1.3526515e+00
  2.1368809e+00
 -6.6421932e-01
  3.7392411e-01
 -3.8623533e-01
 -8.8607091e-01
  8.5211761e-02
  1.1555853e+00
  4.1046768e-01
  5.6551285e-02
  3.2680952e-03
 -7.5328976e-02
 -1.0244693e+00
 -2.2177611e-01
 -1.0117671e+00
  4.6820322e-01
  2.4809618e-01
  1.4522295e+00
 -9.0792024e-01
 -1.7707120e+00
 -3.3575502e-01
 -4.5652837e-01
 -1.2716550e+00
  1.2036715e+00
  2.2252565e-02
 -7.0363030e-02
  6.3008785e-01
  7.3957944e-01
  1.0526861e+00
  1.9161089e-03
 -3.0655962e-01
 -5.2329659e-01
  9.8035537e-02
  3.6090132e-02
 -3.5800979e-02
 -1.3777273e+00
 -3.0499297e-01
  5.8105779e-01
  1.8643411e-02
  1.4861146e-01
  2.0486897e-01
  2.3059875e-01
  5.2267057e-01
  6.2826782e-02
 -2.9511461e-01
  3.2768521e-02
 -6.3367672e-02
  1.5073000e-01
  6.5381683e-02
 -2.8816089e-02
  7.2553463e-02
  4.7303343e-01
  4.8603254e-04
  3.8328698e-01
 -1.5330409e-01
 -3.3368370e-03
  1.7863558e-01
  9.8880634e-02
 -6.5370798e-02
  6.2488642e-04
  1.5440765e-02
  5.9897535e-02
 -7.5728029e-02
  5.2174591e-02
 -1.7369859e+00
 -7.8589596e-02
 -1.7512745e+00
 -1.4868135e+00
 -6.4737327e-02
  1.4274225e-01
 -1.9483033e+00
  1.1108903e-01
  1.0531909e-01
 -9.7295874e-01
 -1.2887834e+00
 -6.4440072e-01
 -4.3373391e-01
 -2.1137938e-02
 -1.2870632e+00
  1.6470114e+00
 -2.4180442e-01
 -5.1445168e-01
  1.1088425e+00
 -1.4782304e-02
 -1.1484500e+00
  1.1198601e+00
 -1.8879803e+00
 -3.6084557e-01
  3.3185506e-01
 -2.7187413e-01
 -1.6531517e-03
 -1.5934111e+00
 -1.0642960e+00
 -4.4168091e-01
 -3.5674959e-01
 -5.5062121e-01
 -1.8568993e-01
 -1.0819957e-01
  4.9902251e-01
  2.6681605e-01
  2.5658661e-01
 -5.0946064e-03
 -5.4483658e-01
  3.3272266e-02
 -2.4608023e-01
 -5.2246720e-02
  1.4995255e-01
 -1.0442502e+00
  8.3007604e-02
  1.5040579e-01
  6.8182923e-02
  4.9444410e-01
  6.7248285e-02
  8.8592780e-01
  7.2103566e-01
 -1.4924513e+00
 -3.9803092e-03
  1.9348538e-01
  3.3056623e-01
 -1.0615538e-01
  7.7598602e-02
  6.5460131e-02
 -1.1616378e-01
  3.3590469e-01
 -7.1294308e-02
 -1.4812778e-01
  8.2598500e-02
  4.0056729e-03
  9.0216696e-03
 -5.1386345e-02
  2.9192102e-01
 -2.4599640e-01
  1.3465729e+00
  1.3094877e+00
  8.9031458e-01
  2.3837133e-01
 -1.4961976e+00
 -4.8884932e-02
 -6.4097011e-01
 -1.2424663e-01
  9.3278319e-01
  1.6703729e-01
  3.5014443e-02
 -1.5914865e-02
 -1.0618726e+00
 -7.6218331e-01
  7.9785323e-01
 -1.1559215e-02
  1.0776952e-01
 -9.7529605e-02
 -1.1489005e+00
 -1.5145034e-01
 -2.2309655e-01
 -4.9842671e-01
 -1.7017733e+00
 -2.3485608e+00
  2.1617794e+00
 -5.6034643e-02
  5.4443169e-01
  3.2413725e-02
  3.4873273e-02
  1.1534001e-02
 -4.0763670e-01
  2.1410844e+00
 -5.4044094e+00
  1.4343965e+00
 -8.4769315e-01
 -1.7781086e+00
  4.4190088e-01
 -2.5953510e-01
  1.3095455e+00
  1.1166994e-02
  2.9178131e+00
  2.5310445e+00
 -1.4439940e+00
  2.3451827e+00
 -2.0260353e+00
 -1.9210996e-01
 -2.2283826e+00
 -7.9331923e-01
  3.6986342e-01
 -8.2869405e-01
 -2.3772462e-01
 -2.7076882e-01
 -1.0873266e+00
  2.3373861e+00
 -2.3279166e+00
  2.6645288e-02
 -3.0556694e-01
  1.0933796e-01
 -4.3329399e-02
 -1.5328749e-01
 -9.2007210e-03
  1.1518412e+00
 -2.0719109e+00
 -2.8514841e+00
 -9.0380840e-02
 -1.7080703e+00
 -6.6598839e-01
  2.0340483e+00
 -1.4081079e+00
 -1.0746167e-01
 -1.8245111e+00
 -5.7269819e-02
 -8.5175365e-02
 -1.7589960e-01
  1.1972945e-01
  3.9776084e-01
 -1.8324536e+00
  4.5268893e-01
  1.4220290e+00
  3.6363194e+00
 -3.9594012e-01
 -1.4217618e+00
  5.9973534e-02
 -1.2797631e+00
 -1.3162218e-01
  1.2481575e-01
 -1.6189729e-01
  2.7403823e-01
 -4.7424221e-03
 -7.6287828e-02
  7.4092217e-02
 -8.4997320e-01
  5.8307898e-01
  4.0758979e-02
 -1.1295425e+00
 -2.9814811e+00
  4.4695068e-02
 -7.5614369e-01
  8.8290948e-01
  1.0304433e+00
  7.3580843e-01
  8.0936879e-01
 -2.2266414e+00
  4.4191122e-01
 -3.2916810e-02
 -4.4405043e-01
 -7.2112435e-01
 -7.4715036e-01
 -1.0292205e+00
 -9.3794441e-01
 -1.2714967e+00
 -5.2615750e-01
  3.7374664e-02
  2.2038827e+00
 -2.1769426e+00
  1.4704674e-02
  3.8932350e-01
  6.3016466e-03
  6.6738743e-01
 -3.2682091e-01
  4.9303517e-02
 -5.6392211e-01
  2.6219895e-01
 -2.6639250e-01
 -8.3792597e-02
 -6.4018917e-01
  2.6068273e-01
 -1.0958982e+00
 -1.7673911e-01
 -1.4259982e-01
  1.3084547e-01
 -2.2416155e-01
 -3.5848018e-02
 -1.7659172e-02
  4.4316971e-01
  3.9650578e-02
 -1.2401917e+00
  4.0300834e-01
 -1.0779914e-01
  1.2512271e+00
  7.8994319e-02
 -2.0026983e-01
 -1.3969137e-01
  2.5297895e-01
 -3.2430328e-02
  1.2177892e-01
  4.0005863e-02
  3.1347152e-02
  9.0488859e-02
  2.6033816e-01
  5.3862672e-02
  4.1664042e-02
 -1.0259326e+00
  1.2693492e-01
 -1.5631576e-01
 -2.8966969e-01
 -3.3289602e-01
 -8.4664769e-02
  7.2771376e-01
 -1.0437328e-01
  5.9602816e-02
  7.8084320e-02
  5.1108655e-02
  2.8326651e-02
  3.2001987e-02
 -1.3023166e-01
  1.0244594e-02
  1.1990995e+00
 -8.1127182e-02
  1.0922842e-01
  7.7623017e-02
 -7.6639950e-02
 -8.5830539e-02
 -3.1329773e-02
 -9.6734852e-02
 -4.6555075e-01
  1.3231216e-02
 -1.6897948e+00
  7.1623072e-02
  1.4693061e-01
 -7.1519560e-01
 -2.1849608e-01
 -1.3373824e+00
 -8.5546184e-01
 -2.9332945e-02
  1.2327579e+00
 -1.1714924e-01
  4.7501646e-02
 -3.4604710e-01
  2.9492371e-02
 -2.2158833e-01
 -3.4808522e-01
 -3.8840041e-02
 -7.2828080e-03
  1.8966927e-01
  2.0149228e-01
 -2.4530697e-01
  2.7683439e-02
 -6.8531388e-01
 -1.0200155e+00
  1.7918873e-01
 -1.9458805e-01
 -2.2069950e-02
  5.2145457e-01
 -4.7368115e-01
  1.4287037e-01
 -4.6800345e-01
  3.9641839e-02
 -9.7882800e-02
  2.7799290e-01
  1.1848416e-01
 -9.2982396e-02
  2.0651335e-01
  1.3231345e-01
 -6.6586137e-01
 -2.0562971e+00
  3.4454191e-01
  9.1828132e-01
 -2.9972428e-02
  1.7035115e-01
  3.1097677e-01
  3.5118230e-02
  1.0856406e-02
  9.4433479e-02
  6.9440201e-02
 -7.4863667e-04
  8.3502704e-01
  2.3425098e-03
  8.6515182e-01
  4.2316589e-01
 -5.0922859e-01
  1.8185253e-01
  5.8727912e-03
  3.6892039e-01
 -3.8285747e-01
  6.6691521e-03
 -1.1450563e-01
  1.7824519e-02
 -6.0365134e-01
 -2.8605390e-04
 -6.3022517e-02
  1.5308912e-01
  3.6060014e-01
  4.8141304e-02
 -1.1743587e+00
 -5.3701657e-01
  3.9428678e-01
  9.7002782e-02
  2.0941563e-01
 -7.4568313e-01
  3.4941239e+00
  1.1795048e-01
 -9.6965227e-03
  1.0201510e-01
 -1.3304175e-01
  7.2846287e-01
 -2.7418845e+00
 -1.7897110e-01
 -2.3817017e+00
  6.4224881e-01
 -2.0466834e-01
 -1.8919395e+00
 -1.6346068e+00
  4.0850285e-02
 -8.0201715e-02
 -4.5054111e-01
  1.1656534e-01
  1.1673220e-01
 -5.1546581e-02
  1.0154448e-01
 -1.0560288e-01
 -7.0236588e-01
 -1.4437274e+00
 -1.9276901e+00
 -1.6466088e+00
 -4.9173325e-01
 -2.2925315e+00
  1.6412864e-02
 -3.2872121e+00
  1.3512179e-01
 -8.5621983e-01
  9.8832488e-02
 -1.6691583e-01
 -5.2428275e-01
  1.8356723e-01
  3.7508464e-01
  1.8686904e+00
  1.1906154e+00
 -3.9730108e-01
  1.8994138e+00
 -6.0658973e-01
  1.0279712e-03
 -6.9584511e-02
 -1.8794619e-01
  1.6307853e+00
 -6.9666433e-01
 -1.4439870e-01
  2.5043627e-02
 -9.2443973e-01
  1.0375299e-02
  1.9365337e-02
 -3.1156537e-01
  1.5811148e+00
 -1.9767468e+00
 -1.1453068e-01
 -2.3814894e-02
  2.6442792e+00
  3.3723179e-01
 -5.2825745e-02
 -1.2428859e-01
  6.9455510e-01
  8.4751159e-02
 -4.6585378e-01
  1.8196186e-02
  1.4386053e-01
  8.0223054e-01
  1.3472238e+00
  1.1495386e-01
 -1.1100275e-02
 -1.9444336e+00
 -5.8198142e-01
 -1.5534528e-01
 -8.5840583e-01
  3.8540235e-01
  3.1067279e-01
 -1.9502103e+00
  1.0546581e-01
  3.1450808e-02
 -2.5700703e-01
 -4.9389051e-03
 -1.6330968e-01
 -1.8668136e-02
 -2.0823870e-02
  1.6714199e-01
  5.7286966e-01
 -2.4171338e+00
  1.1378612e-01
 -8.7781094e-02
 -6.4423136e-02
  7.1826421e-02
  2.1245781e-01
  2.2163124e-01
  6.6557126e-03
  4.4153672e-02
 -3.7756089e-02
 -5.5774581e-01
  4.6437308e-01
  3.6800084e-01
  2.4123417e-01
  4.1131239e-02
 -3.4286386e-01
  2.5811523e-01
 -9.1925256e-02
  4.4624403e-02
 -1.4724451e-01
  1.5662178e-01
  1.4327623e-01
  1.9240682e-01
  6.1985117e-01
  6.9016344e-03
 -3.0750182e-01
  4.3134809e-01
 -2.0178943e+00
 -3.4562731e-01
  2.2214735e+00
 -4.5779318e-02
 -1.2497439e+00
 -4.4726700e-01
  1.8306518e+00
 -1.7892549e-02
  1.3692414e+00
  1.1137520e+00
  1.5750279e-01
  1.5333059e-01
 -2.5479317e-01
  1.0369698e-02
  1.0536638e+00
 -9.3983881e-02
 -1.1034708e-01
 -3.4970593e-01
  1.5994306e+00
 -5.0787088e-02
  1.5537832e+00
 -8.5969633e-01
 -2.0996501e+00
  4.2113683e-01
 -8.6339600e-03
 -3.3441079e-01
  3.7916616e-02
  1.0908472e-02
  2.6815405e-01
  7.2260249e-01
  1.1955121e-01
 -2.8209159e-01
 -1.1527265e+00
  7.0434248e-01
  2.7350671e+00
  9.4088548e-01
 -2.4856251e-02
  2.5896209e-01
 -6.0174721e-01
  2.0900929e+00
 -9.8577864e-02
  3.6605081e-01
 -7.2454864e-01
 -2.3415560e-01
 -1.5218012e+00
 -2.0994143e-01
  4.3164930e-01
 -8.4303945e-01
  1.0495936e-01
 -7.6050049e-01
 -1.8692820e-01
 -1.8233070e-01
  1.4488554e+00
 -1.5889078e-01
 -3.9613336e-02
  4.9420103e-02
 -9.6657887e-02
  1.1950325e-01
  2.4350163e-01
 -2.4129339e-01
 -1.7698079e-01
  1.5009647e-03
 -1.2380159e+00
 -1.7017672e+00
 -1.0363862e-01
  1.1540543e-01
  3.9893779e-01
  1.1368280e-01
  1.3087746e-02
  5.1865768e-01
  2.9662363e-02
 -5.5826578e-02
  1.0583667e-01
 -2.0644750e-01
  1.5449665e-01
  1.6309428e-01
 -1.6059333e-02
 -3.5137767e-01
 -2.8024828e-02
 -8.5206372e-01
  3.2019760e-02
 -1.4239882e-01
 -8.1175826e-02
 -6.6345088e-02
  1.2079247e-01
 -4.5189310e-02
  6.9331517e-03
  3.3801118e-01
 -6.4008236e-02
  7.1484971e-01
 -5.4361933e-01
 -1.4259444e+00
 -4.3362308e-01
  7.1960407e-01
  4.9837396e-02
  1.5744634e+00
 -1.3825047e+00
  1.2015130e-02
 -6.7472643e-01
 -2.7787796e-01
  3.8432840e-01
 -2.2814913e+00
 -1.1804997e+00
 -1.3228104e+00
 -1.5435582e+00
 -5.0544423e-01
  6.0594440e-01
 -1.7192119e+00
  6.5951437e-02
 -5.4206425e-01
  4.2157257e-01
  1.4270825e+00
 -2.3850696e-01
  3.2814637e-01
  1.0524689e+00
 -2.2218326e-01
  1.9302803e+00
 -1.6104265e-01
 -1.3316676e-01
 -1.2634762e-01
  1.4247055e+00
 -1.8469162e+00
 -1.8113395e+00
 -1.2706456e+00
 -9.1691278e-02
 -5.3103083e-01
  1.0548079e+00
 -1.0911502e+00
  1.1108779e+00
 -2.3978660e+00
 -8.8835698e-01
 -8.1904280e-01
 -2.0841615e+00
  2.0677946e+00
 -1.4178917e+00
 -1.8968943e+00
 -7.9541326e-01
  2.1497076e+00
 -4.0741986e-01
  4.4606164e-02
 -1.3931074e+00
 -2.7974468e-01
 -6.1361468e-01
 -1.0098603e+00
 -1.3882811e+00
  5.2830732e-01
  6.5794349e-01
  7.6481289e-01
 -1.7856215e-01
  9.1564178e+00
  7.4286926e-01
 -3.7689574e+00
 -1.2595978e+00
  2.6560495e-02
  1.6777632e-01
 -2.5301730e-02
 -4.5975581e-01
  1.0752766e-01
 -1.3462402e+00
 -1.1560459e+00
  1.9880139e+00
 -3.1263031e-02
  3.9745444e-01
 -2.0442324e+00
  1.5385263e+00
 -1.0171520e-01
  1.7361709e+00
 -7.8506070e-01
 -2.7869758e-01
  3.8671660e-01
 -2.6295216e+00
 -1.0031264e+00
  2.3289637e-01
  1.2195810e+00
  3.1505239e-01
 -7.0624226e-01
 -1.8826009e-01
  2.2613935e+00
  1.0247622e+00
 -2.0113294e+00
 -2.9448824e+00
  1.5018077e+00
  6.6468149e-01
 -3.8365173e-01
  2.1782839e+00
 -8.6068976e-01
  4.4532672e-02
  6.6669637e-01
 -3.2567942e-01
 -1.2811410e+00
  1.2333320e+00
  8.4808141e-02
  5.1885381e+00
  1.1589814e+00
 -3.2263574e-01
  9.9954879e-01
  3.3978193e+00
 -1.6851376e+00
 -1.2310913e+00
 -2.8736800e-01
 -8.8352329e-01
 -4.9738613e-01
  1.8450414e+00
 -7.0873207e-01
  2.2419848e+00
  1.2746258e+00
  3.8866106e-01
 -1.8154315e+00
 -6.1577588e-02
 -1.4595391e+00
 -4.6492821e-01
  5.1558071e-01
 -2.3646693e+00
 -1.4881121e+00
 -7.1473557e-01
 -6.1196905e-01
  7.4085809e-02
 -7.9544878e-01
  1.8902282e+00
 -4.7089472e-01
 -3.6712730e-01
 -1.2590750e+00
 -5.6297493e-01
 -7.6688969e-01
 -6.0449082e-01
 -9.3042165e-01
 -7.5320876e-01
 -6.7155981e-01
 -3.8467059e+00
 -1.9183974e+00
 -1.7062367e-01
 -7.5923371e-01
  6.9476825e-01
 -5.6944829e-01
  7.7007014e-01
 -9.1092169e-02
  1.0361834e+00
  9.6345556e-01
  6.7353815e-01
  2.6759151e-01
 -1.3805461e+00
  1.2005054e+00
  9.8210353e-01
  6.3516921e-01
 -4.6194670e-01
  2.3250248e-01
  2.0083294e+00
  3.1483880e-01
  1.7908400e+00
 -2.7983539e+00
  1.5807235e-01
 -1.0273275e+00
 -3.0205902e-01
  6.7120767e-01
 -3.3352035e-01
 -1.0050557e+00
 -2.1736328e-01
  4.1313953e+00
  1.4446297e-02
 -1.8842950e-01
  8.7752050e-01
  8.1569386e-01
  1.6082091e+00
 -6.3345589e-02
 -6.2133886e-02
  8.4815174e-01
 -2.6169775e+00
 -6.0648665e-02
  1.6619517e+00
  2.2764747e-01
 -4.1324757e-02
 -1.8656915e-02
  3.6516562e-01
  6.9791317e-01
  1.1132983e-01
  1.4703731e-01
  3.2898274e-01
  2.3255458e+00
  2.2382188e-01
 -9.4667956e-02
  1.9540219e+00
 -5.8267874e-01
 -2.0330699e-01
 -3.4154025e-01
  1.3048306e+00
  7.0705986e-01
  7.9137844e-01
 -3.8506523e-02
 -3.4337479e-01
  1.2350525e-01
 -6.4916432e-01
  5.0309718e-02
 -1.4576356e+00
  8.9253038e-01
  8.4307009e-01
  1.6401662e+00
 -2.5429046e+00
  1.4835167e+00
 -3.0073437e-01
 -3.3524953e-02
 -1.1455234e+00
  7.2725832e-01
 -4.9449958e-02
 -3.2443183e-03
  4.6756721e-01
 -1.8425711e+00
  8.1735343e-01
 -5.7082528e-01
 -1.8518651e+00
 -1.3420815e+00
 -1.8017999e+00
  6.2200952e-01
 -1.8245629e+00
  2.0339359e-02
  1.5623350e+00
  8.1147056e-04
 -3.6270517e-01
  1.2387534e+00
 -2.8480032e-01
  4.9478553e-02
  1.4883310e+00
  6.7809421e-01
 -1.3932590e+00
  1.0212808e+00
 -1.9413874e+00
  4.8793203e-01
 -6.4473778e-01
 -8.0023505e-02
  5.9655011e-01
  3.8025978e-01
  9.9475747e-01
  1.7180108e+00
  1.2475550e+00
  2.5578980e+00
  2.6967444e+00
 -2.8710153e-02
  4.2518229e+00
 -3.2432983e-03
 -1.9805669e+00
 -1.3666103e+00
 -1.8329961e+00
  1.1920338e+00
  1.2240056e+00
  1.2941260e+00
  2.4739234e+00
 -2.0106592e+00
  1.6224884e+00
 -2.4929915e-02
  3.1994560e+00
  2.1521215e+00
 -5.2513230e-01
  4.3861985e-02
  9.7462797e-01
  3.8634688e-01
 -6.0056514e-01
 -1.2968440e+00
 -6.4217448e-02
  3.2678027e+00
  5.5231643e-01
 -1.3265424e+00
 -1.6146955e+00
  8.6452287e-01
  5.2976781e-01
  1.9380765e-01
  3.6771658e-01
 -1.0113993e+00
 -7.0200700e-01
 -3.4338200e-01
 -3.0935988e+00
  2.3584877e-01
 -1.1659789e-01
  1.3150862e-01
 -1.3206345e+00
 -5.1300500e-02
  9.1354281e-01
 -6.1194587e-01
  1.5909032e+00
  3.5573217e-01
  2.4585674e+00
 -5.8935505e-01
  1.2925161e+00
 -4.0047017e-01
 -5.5755937e-01
 -1.8649985e+00
 -1.5613446e+00
  3.3852823e+00
 -2.3361781e+00
 -1.2460359e+00
 -8.9635360e-01
 -2.7347636e-01
  1.9158229e+00
  1.3769454e+00
  5.8337110e-01
  9.3538165e-01
  1.9283324e+00
 -1.1770449e+00
 -1.5771058e+00
  3.1050560e-01
  2.3163325e-01
 -3.0071250e-01
 -1.1004429e+00
 -8.2688190e-02
  1.4655666e+00
 -2.4631441e+00
 -1.1937759e+00
  2.0642608e-01
  2.8602164e+00
 -1.4141910e+00
 -1.9506909e+00
 -2.8024791e-03
 -4.8238173e+00
 -1.1292079e-01
  3.1284523e+00
 -3.6491156e+00
 -4.7785452e-01
 -1.2532697e+00
 -1.4600017e+00
  9.7460085e-01
  8.8207752e-01
  1.0289788e+00
  1.5252283e+00
  1.4840980e+00
  6.6327822e-01
  1.4461541e+00
  7.8830093e-01
 -2.3672569e+00
  3.1463361e-01
 -1.5793598e+00
 -4.1468927e-01
 -2.7196963e+00
  1.6981781e+00
 -8.8758844e-01
 -1.1731057e-01
 -4.6121624e-01
 -5.2628887e-01
 -1.1774448e-01
  1.7126689e+00
 -1.1694616e+00
  8.9946020e-01
  5.1345289e-01
  4.2978537e-01
  4.5360947e-01
  2.2799628e+00
 -3.3209994e-02
  9.3027741e-01
 -4.7012199e-02
  1.7268731e-01
 -1.2068479e+00
  2.9250102e+00
  2.1831837e+00
 -1.3088450e+00
 -1.5981902e+00
 -2.1521859e+00
 -1.2116783e-01
  8.0633104e-01
 -1.8023802e+00
  1.3897375e+00
  2.1941311e+00
  2.7998564e+00
 -9.2543101e-01
 -1.1353431e+00
 -6.1613655e-01
  8.9855510e-01
  1.8225110e-04
 -2.5011175e+00
  2.0296092e-01
 -1.4109875e+00
  2.9331332e-02
 -2.9997346e+00
  1.6478503e+00
 -5.3082883e-01
 -1.9757311e+00
  1.2827562e+00
  2.0912258e-01
  1.4046682e+00
  7.7274311e-01
  1.1751255e+00
 -4.7339806e-03
  1.0959831e+00
  2.8220677e-01
 -5.8183414e-01
  3.3084095e-02
 -1.9724795e+00
 -6.0189533e-01
  4.3244843e+00
 -8.8424116e-01
  1.4599471e+00
  2.0528290e+00
 -6.5344644e-01
  8.5105091e-01
 -7.6671147e-01
  7.1433812e-02
 -8.3855140e-01
 -2.6578674e+00
 -2.1064675e+00
  2.7627602e-01
  1.3900807e+00
  5.2822107e-01
  2.6415510e-03
 -1.8513036e-01
  3.0803618e-01
 -1.5702714e+00
  2.2280273e+00
  6.1018515e-02
 -8.6072403e-01
  9.3563044e-01
  8.0409414e-01
  1.3754991e+00
  2.7160066e-01
 -8.1212586e-01
  4.0335152e-03
  4.0335152e-03
  4.0335152e-03
  4.0335152e-03
  4.0335152e-03
  2.8695153e-02
  2.8695153e-02
  2.8695153e-02
  2.8695153e-02
  2.8695153e-02
  1.7293124e-02
  1.7293124e-02
  1.7293124e-02
  1.7293124e-02
  1.7293124e-02
  1.0292569e-02
  1.0292569e-02
  1.0292569e-02
  1.0292569e-02
  1.0292569e-02
  8.9700362e-03
  8.9700362e-03
  8.9700362e-03
  8.9700362e-03
  8.9700362e-03
  4.8464499e-03
  4.8464499e-03
  4.8464499e-03
  4.8464499e-03
  4.8464499e-03

